date,fES_2,fES_1,fNKD_2,fNKD_1,fFDAX_1,fFDAX_2,fFESX_2,fSXF_1,fSXF_2,fFESX_1
2012-01-02,0.000000,0.000000,0.000000,0.000000,0.000000,0.000000,0.000000,0.000000,0.000000,0.000000
2012-01-03,0.000000,0.000000,0.000000,0.000000,-0.203277,0.000000,0.000000,0.000000,0.000000,-0.202204
2012-01-04,0.000000,0.199184,0.000000,-0.198099,-0.197400,0.000000,0.000000,-0.198856,0.000000,-0.195857
2012-01-05,0.000000,0.199208,0.000000,-0.198624,-0.198671,0.000000,0.000000,-0.199265,0.000000,-0.196237
2012-01-06,0.000000,0.198632,0.000000,-0.195054,-0.196958,0.000000,0.000000,-0.197493,0.000000,-0.196549
2012-01-09,0.000000,0.199908,0.000000,-0.199713,-0.198625,0.000000,0.000000,-0.200406,0.000000,-0.198840
2012-01-10,0.000000,0.204204,0.000000,-0.204596,-0.207308,0.000000,0.000000,-0.204611,0.000000,-0.208044
2012-01-11,0.000000,0.199833,0.000000,-0.199602,-0.198757,0.000000,0.000000,-0.199142,0.000000,-0.198292
2012-01-12,0.000000,0.200924,0.000000,-0.199668,-0.201602,0.000000,0.000000,-0.201211,0.000000,-0.201499
2012-01-13,0.000000,0.199177,0.000000,-0.200787,-0.197988,0.000000,0.000000,-0.198834,0.000000,-0.198408
2012-01-16,0.000000,0.200158,0.000000,-0.201776,-0.203999,0.000000,0.000000,-0.200353,0.000000,-0.203576
2012-01-17,0.000000,0.202334,0.000000,-0.202534,-0.204568,0.000000,0.000000,-0.201592,0.000000,-0.203951
2012-01-18,0.000000,0.202602,0.000000,-0.203182,-0.201563,0.000000,0.000000,-0.202046,0.000000,-0.200412
2012-01-19,0.000000,0.202971,0.000000,-0.204981,-0.203565,0.000000,0.000000,-0.202411,0.000000,-0.205497
2012-01-20,0.000000,0.200173,0.000000,-0.201166,-0.200010,0.000000,0.000000,-0.200503,0.000000,-0.199558
2012-01-23,0.000000,0.200947,0.000000,-0.201481,-0.201645,0.000000,0.000000,-0.203183,0.000000,-0.201904
2012-01-24,0.000000,0.199345,0.000000,-0.199609,-0.198619,0.000000,0.000000,-0.196789,0.000000,-0.198533
2012-01-25,0.000000,0.201747,0.000000,-0.201888,-0.200520,0.000000,0.000000,-0.202823,0.000000,-0.199832
2012-01-26,0.000000,0.200477,0.000000,-0.200899,-0.205080,0.000000,0.000000,-0.199775,0.000000,-0.204649
2012-01-27,0.000000,0.199136,0.000000,-0.198878,-0.198974,0.000000,0.000000,-0.199750,0.000000,-0.198013
2012-01-30,0.000000,0.198200,0.000000,-0.197268,-0.196537,0.000000,0.000000,-0.198311,0.000000,-0.195882
2012-01-31,0.000000,0.200385,0.000000,-0.201414,-0.201044,0.000000,0.000000,-0.200387,0.000000,-0.201583
2012-02-01,0.000000,0.203540,0.000000,-0.202912,-0.206227,0.000000,0.000000,-0.202536,0.000000,-0.205935
2012-02-02,0.000000,0.201013,0.000000,-0.200783,-0.202089,0.000000,0.000000,-0.201234,0.000000,-0.201287
2012-02-03,0.000000,0.203556,0.000000,-0.202105,-0.204285,0.000000,0.000000,-0.201875,0.000000,-0.203924
2012-02-06,0.000000,0.199776,0.000000,-0.199888,-0.199732,0.000000,0.000000,-0.199162,0.000000,-0.199220
2012-02-07,0.000000,0.200821,0.000000,-0.200523,-0.199741,0.000000,0.000000,-0.199739,0.000000,-0.200521
2012-02-08,0.000000,0.200248,0.000000,-0.201255,-0.199618,0.000000,0.000000,-0.198848,0.000000,-0.199834
2012-02-09,0.000000,0.200638,0.000000,-0.201119,-0.201640,0.000000,0.000000,-0.200480,0.000000,-0.201010
2012-02-10,0.000000,0.197160,0.000000,-0.196214,-0.195627,0.000000,0.000000,-0.196454,0.000000,-0.195309
2012-02-13,0.000000,0.201649,0.000000,-0.202284,0.201396,0.000000,0.000000,-0.200265,0.000000,-0.200782
2012-02-14,0.000000,0.200249,0.000000,-0.202211,0.200464,0.000000,0.000000,-0.200492,0.000000,-0.200596
2012-02-15,0.000000,0.199706,0.000000,-0.203498,0.201552,0.000000,0.000000,-0.199868,0.000000,-0.201008
2012-02-16,0.000000,0.202596,0.000000,-0.203659,0.200148,0.000000,0.000000,-0.203306,0.000000,-0.200083
2012-02-17,0.000000,0.200851,0.000000,-0.202460,0.202930,0.000000,0.000000,-0.199209,0.000000,-0.202768
2012-02-20,0.000000,0.200725,0.000000,-0.202334,0.202869,0.000000,0.000000,-0.199085,0.000000,-0.202254
2012-02-21,0.000000,0.200517,0.000000,-0.200375,0.199768,0.000000,0.000000,-0.203291,0.000000,0.200134
2012-02-22,0.000000,0.200956,0.000000,-0.203675,0.199611,0.000000,0.000000,-0.202787,0.000000,0.199726
2012-02-23,0.000000,0.201355,0.000000,-0.200739,0.199224,0.000000,0.000000,-0.200487,0.000000,0.199367
2012-02-24,0.000000,0.199946,0.000000,-0.202200,0.201553,0.000000,0.000000,-0.200104,0.000000,0.201185
2012-02-27,0.000000,0.200133,0.000000,-0.197184,0.199446,0.000000,0.000000,-0.199520,0.000000,0.198915
2012-02-28,0.000000,0.201197,0.000000,-0.204754,0.201362,0.000000,0.000000,-0.201046,0.000000,0.200892
2012-02-29,0.000000,0.199150,0.000000,-0.199558,0.199097,0.000000,0.000000,-0.198677,0.000000,0.199298
2012-03-01,0.000000,0.200639,0.000000,-0.199689,0.201490,0.000000,0.000000,-0.201261,0.000000,0.202116
2012-03-02,0.000000,0.199163,0.000000,-0.200510,0.199740,0.000000,0.000000,-0.198317,0.000000,0.199921
2012-03-05,0.000000,0.199402,0.000000,-0.198189,0.198434,0.000000,0.000000,-0.198660,0.000000,0.198923
2012-03-06,0.000000,0.198125,0.000000,-0.197615,0.195275,0.000000,0.000000,0.196681,0.000000,0.195082
2012-03-07,0.000000,0.201337,0.000000,-0.202040,0.200232,0.000000,0.000000,0.200396,0.000000,0.200633
2012-03-08,0.000000,0.199460,0.000000,-0.202331,0.203017,0.000000,0.000000,0.200789,0.000000,0.202430
2012-03-09,0.000000,0.199614,0.000000,0.201426,0.200315,0.000000,0.000000,0.199515,0.000000,0.199097
2012-03-12,0.000000,0.200832,0.000000,0.198920,0.201079,0.000000,0.000000,0.198742,0.000000,0.200433
2012-03-13,0.000000,0.200624,0.000000,0.200353,0.200092,0.000000,0.000000,0.198310,0.000000,0.200613
2012-03-14,0.000000,0.199554,0.000000,0.200140,0.202297,0.000000,0.000000,0.196681,0.000000,0.201326
2012-03-15,0.000000,0.200849,0.000000,0.199806,0.201906,0.000000,0.000000,0.201670,0.000000,0.195774
2012-03-16,0.000000,0.199794,0.000000,0.199437,0.199660,0.000000,0.000000,0.200798,0.000000,0.200306
2012-03-19,0.000000,0.200507,0.000000,0.200516,0.199652,0.000000,0.000000,0.199214,0.000000,0.200115
2012-03-20,0.000000,0.200768,0.000000,0.200943,0.198560,0.000000,0.000000,0.201000,0.000000,0.198727
2012-03-21,0.000000,0.199895,0.000000,0.199160,0.200848,0.000000,0.000000,0.200253,0.000000,0.199853
2012-03-22,0.000000,0.200576,0.000000,0.200495,0.199185,0.000000,0.000000,0.201088,0.000000,0.198659
2012-03-23,0.000000,0.200213,0.000000,0.199495,0.200079,0.000000,0.000000,0.201113,0.000000,0.199090
2012-03-26,0.000000,0.200934,0.000000,0.200138,0.200096,0.000000,0.000000,0.199908,0.000000,0.198918
2012-03-27,0.000000,0.199169,0.000000,0.201965,0.200345,0.000000,0.000000,0.199281,0.000000,0.199238
2012-03-28,0.000000,0.200340,0.000000,0.201234,0.199148,0.000000,0.000000,0.200244,0.000000,0.199022
2012-03-29,0.000000,0.201526,0.000000,0.201118,0.198206,0.000000,0.000000,0.201045,0.000000,0.198077
2012-03-30,0.000000,0.199515,0.000000,0.200278,0.200765,0.000000,0.000000,0.198663,0.000000,0.200804
2012-04-02,0.000000,0.199921,0.000000,0.197248,0.201622,0.000000,0.000000,0.200867,0.000000,0.200343
2012-04-03,0.000000,0.201291,0.000000,0.201328,0.199856,0.000000,0.000000,0.198882,0.000000,0.198671
2012-04-04,0.000000,0.202355,0.000000,0.198120,0.198436,0.000000,0.000000,0.202130,0.000000,0.198961
2012-04-05,0.000000,0.200274,0.000000,0.199988,0.200810,0.000000,0.000000,0.198247,0.000000,0.200706
2012-04-06,0.000000,0.200000,0.000000,0.200000,0.200810,0.000000,0.000000,0.198247,0.000000,0.200706
2012-04-09,0.000000,0.199052,0.000000,0.197954,0.202075,0.000000,0.000000,0.200467,0.000000,0.201971
2012-04-10,0.000000,0.201145,0.000000,0.199452,0.200536,0.000000,0.000000,0.202320,0.000000,0.199101
2012-04-11,0.000000,0.199499,0.000000,0.201439,0.199492,0.000000,0.000000,0.199940,0.000000,0.199618
2012-04-12,0.000000,0.200682,0.000000,0.199572,0.199923,0.000000,0.000000,0.201026,0.000000,0.198801
2012-04-13,0.000000,0.200665,0.000000,0.202269,0.198715,0.000000,0.000000,0.199940,0.000000,0.198404
2012-04-16,0.000000,0.199355,0.000000,0.198247,0.201470,0.000000,0.000000,0.199765,0.000000,0.201204
2012-04-17,0.000000,0.199427,0.000000,0.199311,0.201020,0.000000,0.000000,0.198517,0.000000,0.201696
2012-04-18,0.000000,0.200517,0.000000,0.201176,0.199506,0.000000,0.000000,0.200872,0.000000,0.197960
2012-04-19,0.000000,0.200328,0.000000,0.200435,0.199452,0.000000,0.000000,0.202308,0.000000,0.197437
2012-04-20,0.000000,0.199359,0.000000,0.199584,0.200985,0.000000,0.000000,0.198644,0.000000,0.201467
2012-04-23,0.000000,0.202300,0.000000,0.201180,0.197353,0.000000,0.000000,0.201318,0.000000,0.197898
2012-04-24,0.000000,0.199229,0.000000,0.199640,0.200513,0.000000,0.000000,0.198408,0.000000,0.202262
2012-04-25,0.000000,0.199838,0.000000,0.198905,0.200819,0.000000,0.000000,0.199611,0.000000,0.200809
2012-04-26,0.000000,0.201038,0.000000,0.199878,0.200383,0.000000,0.000000,0.199294,0.000000,0.199406
2012-04-27,0.000000,0.199467,0.000000,0.197457,0.200945,0.000000,0.000000,0.200896,0.000000,0.201242
2012-04-30,0.000000,0.200074,0.000000,0.199528,0.199966,0.000000,0.000000,0.202007,0.000000,0.198420
2012-05-01,0.000000,0.201122,0.000000,0.198321,0.200082,0.000000,0.000000,0.200317,0.000000,0.198536
2012-05-02,0.000000,0.200818,0.000000,0.200392,0.199435,0.000000,0.000000,0.199724,0.000000,0.199851
2012-05-03,0.000000,0.199952,0.000000,0.199670,0.201295,0.000000,0.000000,0.197746,0.000000,0.201341
2012-05-04,0.000000,0.199663,0.000000,0.200804,0.199029,0.000000,0.000000,0.200033,0.000000,0.200476
2012-05-07,0.000000,0.199312,0.000000,0.200032,0.199110,0.000000,0.000000,0.199460,0.000000,0.202076
2012-05-08,0.000000,0.201829,0.000000,0.200593,0.198925,0.000000,0.000000,0.200099,0.000000,0.198570
2012-05-09,0.000000,0.199674,0.000000,0.198687,0.201608,0.000000,0.000000,0.200086,0.000000,0.199960
2012-05-10,0.000000,0.199475,0.000000,0.199841,0.199992,0.000000,0.000000,0.199541,0.000000,0.201149
2012-05-11,0.000000,0.199230,0.000000,0.198128,0.202349,0.000000,0.000000,0.198858,0.000000,0.201420
2012-05-14,0.000000,0.200837,0.000000,0.200980,0.199635,0.000000,0.000000,0.199700,0.000000,0.198871
2012-05-15,0.000000,0.200700,0.000000,0.201227,0.199278,0.000000,0.000000,-0.199981,0.000000,0.198797
2012-05-16,0.000000,0.199821,0.000000,0.198763,0.200580,0.000000,0.000000,-0.201127,0.000000,0.200597
2012-05-17,0.000000,0.198498,0.000000,0.199784,0.199451,0.000000,0.000000,-0.200799,0.000000,0.199582
2012-05-18,0.000000,0.199391,0.000000,0.198004,0.199613,0.000000,0.000000,-0.199790,0.000000,0.200730
2012-05-21,0.000000,0.201728,0.000000,0.201249,0.199882,0.000000,0.000000,-0.197687,0.000000,0.199291
2012-05-22,0.000000,0.199048,0.000000,0.200115,0.202342,0.000000,0.000000,-0.200722,0.000000,0.202922
2012-05-23,0.000000,0.203389,0.000000,0.199862,0.198404,0.000000,0.000000,-0.205803,0.000000,0.197827
2012-05-24,0.000000,0.200174,0.000000,0.198805,0.200388,0.000000,0.000000,-0.199334,0.000000,0.201687
2012-05-25,0.000000,0.198771,0.000000,0.199555,0.200568,0.000000,0.000000,-0.199357,0.000000,-0.200648
2012-05-28,0.000000,0.198504,0.000000,0.199287,0.199071,0.000000,0.000000,-0.199214,0.000000,-0.198251
2012-05-29,0.000000,0.201774,0.000000,0.201065,0.201683,0.000000,0.000000,-0.201465,0.000000,-0.200544
2012-05-30,0.000000,0.196876,0.000000,0.196929,0.196955,0.000000,0.000000,-0.196634,0.000000,-0.196635
2012-05-31,0.000000,0.200738,0.000000,0.200387,0.199202,0.000000,0.000000,-0.202914,0.000000,-0.199958
2012-06-01,0.000000,0.196615,0.000000,0.196578,0.196404,0.000000,0.000000,-0.199343,0.000000,-0.198503
2012-06-04,0.000000,0.200111,0.000000,0.202209,0.197461,0.000000,0.000000,-0.199835,0.000000,-0.201043
2012-06-05,0.000000,0.201596,0.000000,0.202589,0.199279,0.000000,0.000000,-0.202065,0.000000,-0.200291
2012-06-06,0.000000,0.203460,0.000000,0.203561,0.203223,0.000000,0.000000,-0.201177,0.000000,-0.204088
2012-06-07,0.000000,0.199113,0.000000,0.199487,0.201178,0.000000,0.000000,-0.199828,0.000000,-0.199762
2012-06-08,0.000000,0.201668,0.000000,0.197525,0.199398,0.000000,0.000000,-0.197539,0.000000,-0.200399
2012-06-11,0.000000,0.197035,0.000000,0.199275,0.200723,0.000000,0.000000,-0.198552,0.000000,-0.199770
2012-06-12,0.000000,0.202290,0.000000,0.201257,0.200238,0.000000,0.000000,-0.200895,0.000000,-0.199917
2012-06-13,0.000000,0.198904,0.000000,0.200029,0.199491,0.000000,0.000000,-0.200706,0.000000,-0.200146
2012-06-14,0.000000,0.201923,0.000000,0.200190,0.199535,0.000000,0.000000,-0.199595,0.000000,-0.199072
2012-06-15,0.000000,0.201263,0.000000,0.200383,0.202512,0.000000,0.000000,-0.200181,0.000000,-0.202280
2012-06-18,0.000000,0.199904,0.000000,0.200768,0.199910,0.000000,0.000000,-0.200415,0.000000,-0.197724
2012-06-19,0.000000,0.201741,0.000000,0.200783,0.204057,0.000000,0.000000,-0.203755,0.000000,-0.204147
2012-06-20,0.000000,0.199553,0.000000,0.201577,0.200441,0.000000,0.000000,-0.199129,0.000000,-0.200519
2012-06-21,0.000000,0.195324,0.000000,0.199230,0.198935,0.000000,0.000000,-0.194249,0.000000,-0.199776
2012-06-22,0.000000,0.201176,0.000000,0.201598,0.196915,0.000000,0.000000,-0.200810,0.000000,-0.198430
2012-06-25,0.000000,0.197676,0.000000,-0.196650,0.197181,0.000000,0.000000,-0.198495,0.000000,-0.195950
2012-06-26,0.000000,0.201464,0.000000,-0.201126,0.199809,0.000000,0.000000,-0.201140,0.000000,-0.199521
2012-06-27,0.000000,0.202020,0.000000,-0.202685,0.203042,0.000000,0.000000,-0.201639,0.000000,-0.203710
2012-06-28,0.000000,0.200193,0.000000,-0.201674,0.198438,0.000000,0.000000,-0.200617,0.000000,-0.200182
2012-06-29,0.000000,0.206282,0.000000,-0.207595,0.209629,0.000000,0.000000,-0.203917,0.000000,-0.210933
2012-07-02,0.000000,0.199733,0.000000,-0.197836,0.201999,0.000000,0.000000,-0.203495,0.000000,-0.201887
2012-07-03,0.000000,0.202708,0.000000,-0.203821,0.203881,0.000000,0.000000,-0.205319,0.000000,-0.203886
2012-07-04,0.000000,0.202823,0.000000,-0.203936,0.199641,0.000000,0.000000,-0.200882,0.000000,-0.199420
2012-07-05,0.000000,0.198385,0.000000,-0.197483,0.198506,0.000000,0.000000,-0.197518,0.000000,-0.197231
2012-07-06,0.000000,0.198049,0.000000,-0.198049,0.195709,0.000000,0.000000,-0.197403,0.000000,-0.195105
2012-07-09,0.000000,0.199204,0.000000,-0.197802,0.199106,0.000000,0.000000,-0.198794,0.000000,-0.199125
2012-07-10,0.000000,0.197451,0.000000,-0.197810,0.201059,0.000000,0.000000,-0.196839,0.000000,-0.200739
2012-07-11,0.000000,0.200268,0.000000,-0.200495,0.200202,0.000000,0.000000,-0.200767,0.000000,-0.200156
2012-07-12,0.000000,0.198043,0.000000,-0.195609,-0.198268,0.000000,0.000000,-0.197388,0.000000,-0.197841
2012-07-13,0.000000,0.204582,0.000000,-0.203253,-0.204856,0.000000,0.000000,-0.202629,0.000000,-0.203346
2012-07-16,0.000000,0.199446,0.000000,-0.198599,-0.201099,0.000000,0.000000,-0.200075,0.000000,-0.200253
2012-07-17,0.000000,0.201619,0.000000,-0.201016,-0.199743,0.000000,0.000000,-0.201480,0.000000,-0.199276
2012-07-18,0.000000,0.202268,0.000000,-0.200859,-0.204446,0.000000,0.000000,-0.200669,0.000000,-0.204108
2012-07-19,0.000000,0.201754,0.000000,-0.201628,-0.203207,0.000000,0.000000,-0.202640,0.000000,-0.202644
2012-07-20,0.000000,0.195578,0.000000,-0.193522,-0.194062,0.000000,0.000000,-0.196132,0.000000,-0.192484
2012-07-23,0.000000,0.195163,0.000000,-0.193726,-0.191128,0.000000,0.000000,-0.195745,0.000000,-0.192244
2012-07-24,0.000000,0.197029,0.000000,-0.197496,-0.198475,0.000000,0.000000,-0.197257,0.000000,-0.196767
2012-07-25,0.000000,0.200979,0.000000,-0.200389,-0.200057,0.000000,0.000000,-0.201601,0.000000,-0.200151
2012-07-26,0.000000,0.206293,0.000000,-0.206184,-0.208762,0.000000,0.000000,-0.206022,0.000000,-0.211587
2012-07-27,0.000000,0.206181,0.000000,-0.205711,-0.205345,0.000000,0.000000,-0.204268,0.000000,-0.206726
2012-07-30,0.000000,0.200831,0.000000,-0.199849,-0.204131,0.000000,0.000000,-0.200761,0.000000,-0.204890
2012-07-31,0.000000,0.198755,0.000000,-0.199045,-0.199667,0.000000,0.000000,-0.198280,0.000000,-0.198769
2012-08-01,0.000000,0.199599,0.000000,-0.201693,-0.199414,0.000000,0.000000,-0.199338,0.000000,-0.200611
2012-08-02,0.000000,0.196263,0.000000,-0.195098,-0.193251,0.000000,0.000000,-0.196025,0.000000,-0.191816
2012-08-03,0.000000,0.207584,0.000000,-0.206281,-0.211383,0.000000,0.000000,-0.206464,0.000000,-0.212532
2012-08-06,0.000000,0.201269,0.000000,-0.202398,-0.202691,0.000000,0.000000,-0.207624,0.000000,-0.203759
2012-08-07,0.000000,0.203200,0.000000,-0.205536,-0.203453,0.000000,0.000000,-0.207013,0.000000,-0.205556
2012-08-08,0.000000,0.199610,0.000000,-0.199544,0.199331,0.000000,0.000000,-0.197255,0.000000,-0.199022
2012-08-09,0.000000,0.200757,0.000000,-0.202013,0.200421,0.000000,0.000000,-0.201272,0.000000,-0.200517
2012-08-10,0.000000,0.200135,0.000000,-0.199181,0.199592,0.000000,0.000000,-0.200622,0.000000,-0.199029
2012-08-13,0.000000,0.199781,0.000000,-0.198886,0.198703,0.000000,0.000000,-0.199160,0.000000,-0.199121
2012-08-14,0.000000,0.200238,0.000000,-0.201733,0.201989,0.000000,0.000000,-0.201243,0.000000,-0.201543
2012-08-15,0.000000,0.200417,0.000000,-0.200019,0.199629,0.000000,0.000000,-0.200427,0.000000,-0.200378
2012-08-16,0.000000,0.202540,0.000000,-0.205451,0.202350,0.000000,0.000000,-0.203582,0.000000,-0.202915
2012-08-17,0.000000,0.200847,0.000000,-0.202393,0.201761,0.000000,0.000000,-0.201639,0.000000,-0.201672
2012-08-20,0.000000,0.199800,0.000000,-0.199220,0.199856,0.000000,0.000000,-0.199957,0.000000,-0.199708
2012-08-21,0.000000,0.199845,0.000000,-0.199618,0.201813,0.000000,0.000000,-0.200743,0.000000,-0.202274
2012-08-22,0.000000,0.199405,0.000000,-0.197699,0.197472,0.000000,0.000000,-0.199354,0.000000,-0.196478
2012-08-23,0.000000,0.198220,0.000000,-0.199844,0.198246,0.000000,0.000000,-0.198335,0.000000,-0.197999
2012-08-24,0.000000,0.201394,0.000000,-0.200662,0.200432,0.000000,0.000000,-0.200672,0.000000,-0.200495
2012-08-27,0.000000,0.199775,0.000000,-0.199768,0.201908,0.000000,0.000000,-0.200046,0.000000,-0.201794
2012-08-28,0.000000,0.199486,0.000000,-0.198460,0.198381,0.000000,0.000000,-0.198571,0.000000,-0.198177
2012-08-29,0.000000,0.199977,0.000000,-0.200490,0.199976,0.000000,0.000000,-0.200602,0.000000,-0.199146
2012-08-30,0.000000,0.197927,0.000000,-0.195972,0.196717,0.000000,0.000000,-0.197464,0.000000,-0.197493
2012-08-31,0.000000,0.201087,0.000000,-0.199493,0.201736,0.000000,0.000000,-0.200618,0.000000,-0.202351
2012-09-03,0.000000,0.201226,0.000000,-0.199632,0.201345,0.000000,0.000000,-0.200757,0.000000,-0.202029
2012-09-04,0.000000,0.199947,0.000000,-0.197671,0.197673,0.000000,0.000000,-0.200039,0.000000,0.198042
2012-09-05,0.000000,0.199170,0.000000,-0.197031,0.200243,0.000000,0.000000,-0.200050,0.000000,0.199607
2012-09-06,0.000000,0.201951,0.000000,-0.201717,0.203529,0.000000,0.000000,-0.200555,0.000000,0.204483
2012-09-07,0.000000,0.200783,0.000000,-0.200336,0.201557,0.000000,0.000000,-0.202593,0.000000,0.201437
2012-09-10,0.000000,0.198263,0.000000,-0.198545,0.199717,0.000000,0.000000,-0.198221,0.000000,0.199188
2012-09-11,0.000000,0.199458,0.000000,-0.198788,0.201574,0.000000,0.000000,-0.198929,0.000000,0.201101
2012-09-12,0.000000,0.201480,0.000000,-0.203175,0.201288,0.000000,0.000000,-0.201196,0.000000,0.200690
2012-09-13,0.000000,0.202466,0.000000,-0.202728,0.199905,0.000000,0.000000,-0.202678,0.000000,0.199363
2012-09-14,0.000000,0.201045,0.000000,-0.203751,0.202497,0.000000,0.000000,-0.202642,0.000000,0.203408
2012-09-17,0.000000,0.199268,0.000000,-0.199192,0.199630,0.000000,0.000000,-0.198866,0.000000,0.199336
2012-09-18,0.000000,0.199983,0.000000,-0.199356,0.199323,0.000000,0.000000,-0.199083,0.000000,0.198648
2012-09-19,0.000000,0.199793,0.000000,-0.200087,0.200395,0.000000,0.000000,-0.199280,0.000000,0.200148
2012-09-20,0.000000,0.200026,0.000000,-0.197769,0.199808,0.000000,0.000000,-0.199590,0.000000,0.197699
2012-09-21,0.000000,0.198991,0.000000,-0.199562,0.201106,0.000000,0.000000,-0.198498,0.000000,0.201036
2012-09-24,0.000000,0.199916,0.000000,-0.198771,0.198966,0.000000,0.000000,-0.199162,0.000000,0.199127
2012-09-25,0.000000,0.197970,0.000000,-0.199377,0.200135,0.000000,0.000000,-0.199162,0.000000,0.200716
2012-09-26,0.000000,0.199928,0.000000,-0.199120,0.197798,0.000000,0.000000,-0.200614,0.000000,0.196568
2012-09-27,0.000000,0.202410,0.000000,-0.202589,0.200361,0.000000,0.000000,-0.202402,0.000000,0.200443
2012-09-28,0.000000,0.199704,0.000000,-0.198407,0.199185,0.000000,0.000000,0.200101,0.000000,0.197032
2012-10-01,0.000000,0.198774,0.000000,-0.197387,0.200997,0.000000,0.000000,0.199271,0.000000,0.201626
2012-10-02,0.000000,0.200467,0.000000,-0.199344,0.199338,0.000000,0.000000,0.200308,0.000000,0.199430
2012-10-03,0.000000,0.200437,0.000000,-0.199804,0.200341,0.000000,0.000000,0.199435,0.000000,0.199757
2012-10-04,0.000000,0.201488,0.000000,-0.201443,0.199311,0.000000,0.000000,0.201472,0.000000,0.199242
2012-10-05,0.000000,0.199011,0.000000,-0.200057,0.201457,0.000000,0.000000,0.198709,0.000000,0.202821
2012-10-08,0.000000,0.199958,0.000000,-0.198610,0.198240,0.000000,0.000000,0.199455,0.000000,0.198207
2012-10-09,0.000000,0.199289,0.000000,-0.198228,0.199213,0.000000,0.000000,0.199356,0.000000,0.198695
2012-10-10,0.000000,0.198797,0.000000,-0.197389,0.199865,0.000000,0.000000,0.198838,0.000000,0.199587
2012-10-11,0.000000,0.199395,0.000000,-0.199662,0.200956,0.000000,0.000000,0.199884,0.000000,0.201270
2012-10-12,0.000000,0.199705,0.000000,-0.199987,0.199587,0.000000,0.000000,0.199853,0.000000,0.199476
2012-10-15,0.000000,0.201510,0.000000,-0.201877,0.200081,0.000000,0.000000,0.200609,0.000000,0.200596
2012-10-16,0.000000,0.199974,0.000000,-0.201281,0.201226,0.000000,0.000000,0.200889,0.000000,0.203029
2012-10-17,0.000000,0.200520,0.000000,-0.201494,0.199940,0.000000,0.000000,0.200609,0.000000,0.201493
2012-10-18,0.000000,0.199630,0.000000,-0.202529,0.201538,0.000000,0.000000,0.199908,0.000000,0.200699
2012-10-19,0.000000,0.197586,0.000000,-0.198711,0.199413,0.000000,0.000000,0.200466,0.000000,0.198426
2012-10-22,0.000000,0.201946,0.000000,-0.206092,0.199898,0.000000,0.000000,0.201554,0.000000,0.200464
2012-10-23,0.000000,0.198980,0.000000,-0.198704,0.198236,0.000000,0.000000,0.198726,0.000000,0.198184
2012-10-24,0.000000,0.199717,0.000000,-0.201051,0.200432,0.000000,0.000000,0.199988,0.000000,0.201061
2012-10-25,0.000000,0.200603,0.000000,-0.202853,0.200273,0.000000,0.000000,0.202275,0.000000,0.199371
2012-10-26,0.000000,0.199006,0.000000,-0.196593,0.200025,0.000000,0.000000,0.199226,0.000000,0.200076
2012-10-29,0.000000,0.200336,0.000000,-0.199443,0.199629,0.000000,0.000000,0.199852,0.000000,0.198969
2012-10-30,0.000000,0.198553,0.000000,-0.198442,0.200482,0.000000,0.000000,0.200958,0.000000,0.201362
2012-10-31,0.000000,0.200070,0.000000,-0.200289,0.200025,0.000000,0.000000,0.200064,0.000000,0.199778
2012-11-01,0.000000,0.201491,0.000000,-0.202164,0.200867,0.000000,0.000000,0.200277,0.000000,0.201223
2012-11-02,0.000000,0.197996,0.000000,-0.199391,0.201235,0.000000,0.000000,0.197801,0.000000,0.201368
2012-11-05,0.000000,0.201272,0.000000,-0.200568,0.199461,0.000000,0.000000,0.200801,0.000000,0.198375
2012-11-06,0.000000,0.200956,0.000000,-0.199859,0.200378,0.000000,0.000000,0.200075,0.000000,0.200275
2012-11-07,0.000000,0.197411,0.000000,-0.197870,0.198594,0.000000,0.000000,0.198623,0.000000,0.198161
2012-11-08,0.000000,0.198100,0.000000,-0.198160,0.199500,0.000000,0.000000,0.199908,0.000000,0.200485
2012-11-09,0.000000,0.200184,0.000000,-0.199655,0.199001,0.000000,0.000000,0.200140,0.000000,0.200111
2012-11-12,0.000000,0.200165,0.000000,-0.199003,0.199844,0.000000,0.000000,0.200233,0.000000,0.199158
2012-11-13,0.000000,0.198874,0.000000,-0.198778,0.200037,0.000000,0.000000,0.198490,0.000000,0.201542
2012-11-14,0.000000,0.199218,0.000000,-0.202334,0.200194,0.000000,0.000000,0.198745,0.000000,0.200411
2012-11-15,0.000000,0.201761,0.000000,-0.206559,0.200021,0.000000,0.000000,0.199976,0.000000,0.200798
2012-11-16,0.000000,0.202823,0.000000,-0.206548,0.199066,0.000000,0.000000,0.202781,0.000000,0.198933
2012-11-19,0.000000,0.200609,0.000000,-0.199910,0.202029,0.000000,0.000000,0.199956,0.000000,0.202753
2012-11-20,0.000000,0.199830,0.000000,-0.199398,0.200674,0.000000,0.000000,0.199956,0.000000,0.200328
2012-11-21,0.000000,0.200248,0.000000,-0.202344,0.200322,0.000000,0.000000,0.201090,0.000000,0.200757
2012-11-22,0.000000,0.199535,0.000000,-0.201624,0.200966,0.000000,0.000000,0.199892,0.000000,0.200555
2012-11-23,0.000000,0.200967,0.000000,-0.200663,0.200853,0.000000,0.000000,0.199703,0.000000,0.200660
2012-11-26,0.000000,0.199842,0.000000,-0.199385,0.199757,0.000000,0.000000,0.200270,0.000000,0.199264
2012-11-27,0.000000,0.199207,0.000000,-0.199388,0.201275,0.000000,0.000000,0.198909,0.000000,0.199948
2012-11-28,0.000000,0.200666,0.000000,-0.198992,0.199596,0.000000,0.000000,0.200259,0.000000,0.199860
2012-11-29,0.000000,0.200484,0.000000,-0.201695,0.200655,0.000000,0.000000,0.200303,0.000000,0.201749
2012-11-30,0.000000,0.199847,0.000000,-0.200763,0.200510,0.000000,0.000000,0.200338,0.000000,0.200024
2012-12-03,0.000000,0.199029,0.000000,-0.198826,0.200534,0.000000,0.000000,0.198835,0.000000,0.200245
2012-12-04,0.000000,0.199737,0.000000,-0.199315,0.199762,0.000000,0.000000,0.199578,0.000000,0.200338
2012-12-05,0.000000,0.200591,0.000000,-0.202432,0.200644,0.000000,0.000000,0.200516,0.000000,0.200277
2012-12-06,0.000000,0.199905,0.000000,-0.199757,0.201709,0.000000,0.000000,0.199205,0.000000,0.200466
2012-12-07,0.000000,0.200631,0.000000,-0.200311,0.199449,0.000000,0.000000,0.200005,0.000000,0.199821
2012-12-10,0.000000,0.200028,0.000000,-0.199012,0.200027,0.000000,0.000000,0.200975,0.000000,0.199122
2012-12-11,0.000000,0.200561,0.000000,-0.200342,0.200596,0.000000,0.000000,0.200005,0.000000,0.201209
2012-12-12,0.000000,0.199486,0.000000,-0.201644,0.200673,0.000000,0.000000,0.200789,0.000000,0.200537
2012-12-13,0.000000,0.199290,0.000000,-0.203734,0.200305,0.000000,0.000000,0.200446,0.000000,0.200829
2012-12-14,0.000000,0.199469,0.000000,-0.199961,0.200466,0.000000,0.000000,0.199915,0.000000,0.200392
2012-12-17,0.000000,0.202484,0.000000,-0.202213,0.200084,0.000000,0.000000,0.199908,0.000000,0.199813
2012-12-18,0.000000,0.201599,0.000000,0.203071,0.201270,0.000000,0.000000,0.199698,0.000000,0.201237
2012-12-19,0.000000,0.198321,0.000000,0.201310,0.199727,0.000000,0.000000,0.200588,0.000000,0.200030
2012-12-20,0.000000,0.200617,0.000000,0.200162,0.199807,0.000000,0.000000,0.199770,0.000000,0.199648
2012-12-21,0.000000,0.198921,0.000000,0.199465,0.200198,0.000000,0.000000,0.201312,0.000000,0.200112
2012-12-24,0.000000,0.199259,0.000000,0.201323,0.200334,0.000000,0.000000,0.199151,0.000000,0.200248
2012-12-26,0.000000,0.198586,0.000000,0.202993,0.199798,0.000000,0.000000,0.198617,0.000000,0.199712
2012-12-27,0.000000,0.199236,0.000000,0.201167,0.199330,0.000000,0.000000,0.199006,0.000000,0.199903
2012-12-28,0.000000,0.198486,0.000000,0.201159,0.201292,0.000000,0.000000,0.199689,0.000000,0.199349
2012-12-31,0.000000,0.202602,0.000000,0.201177,0.198741,0.000000,0.000000,0.201314,0.000000,0.196823
2013-01-02,0.000000,0.200508,0.000000,0.201239,0.196991,0.000000,0.000000,0.196981,0.000000,0.199211
2013-01-03,0.000000,0.200317,0.000000,0.199047,0.200322,0.000000,0.000000,0.199876,0.000000,0.200428
2013-01-04,0.000000,0.200233,0.000000,0.199372,0.199894,0.000000,0.000000,0.200628,0.000000,0.199871
2013-01-07,0.000000,0.200833,0.000000,0.198496,0.200125,0.000000,0.000000,0.200324,0.000000,0.200215
2013-01-08,0.000000,0.200567,0.000000,0.197459,0.200205,0.000000,0.000000,0.200769,0.000000,0.200976
2013-01-09,0.000000,0.199146,0.000000,0.202471,0.199364,0.000000,0.000000,0.199280,0.000000,0.199777
2013-01-10,0.000000,0.200431,0.000000,0.201790,0.198418,0.000000,0.000000,0.200367,0.000000,0.198968
2013-01-11,0.000000,0.199343,0.000000,0.201800,0.199541,0.000000,0.000000,0.199253,0.000000,0.200046
2013-01-14,0.000000,0.199332,0.000000,0.201019,0.200323,0.000000,0.000000,0.199574,0.000000,0.199740
2013-01-15,0.000000,0.201047,0.000000,0.198628,0.199184,0.000000,0.000000,0.201357,0.000000,0.199799
2013-01-16,0.000000,0.200816,0.000000,0.196629,0.201331,0.000000,0.000000,0.200197,0.000000,0.201005
2013-01-17,0.000000,0.199623,0.000000,0.202702,0.199229,0.000000,0.000000,0.199311,0.000000,0.199192
2013-01-18,0.000000,0.199862,0.000000,0.201162,0.199062,0.000000,0.000000,0.200911,0.000000,0.198982
2013-01-21,0.000000,0.199221,0.000000,0.200517,0.200160,0.000000,0.000000,0.200589,0.000000,0.200538
2013-01-22,0.000000,0.201785,0.000000,0.194710,0.199904,0.000000,0.000000,0.201856,0.000000,0.200490
2013-01-23,0.000000,0.200821,0.000000,0.198277,0.200916,0.000000,0.000000,0.199875,0.000000,0.200055
2013-01-24,0.000000,0.198429,0.000000,0.204054,0.199193,0.000000,0.000000,0.199040,0.000000,0.199328
2013-01-25,0.000000,0.199110,0.000000,0.201229,0.201165,0.000000,0.000000,0.198497,0.000000,0.199964
2013-01-28,0.000000,0.200728,0.000000,0.197006,0.200164,0.000000,0.000000,0.201132,0.000000,0.200999
2013-01-29,0.000000,0.200234,0.000000,0.201472,0.199640,0.000000,0.000000,0.199223,0.000000,0.199459
2013-01-30,0.000000,0.199034,0.000000,0.203538,0.199108,0.000000,0.000000,0.198976,0.000000,0.199312
2013-01-31,0.000000,0.200370,0.000000,0.201722,0.200343,0.000000,0.000000,0.198723,0.000000,0.198805
2013-02-01,0.000000,0.200624,0.000000,0.201230,0.199707,0.000000,0.000000,0.199812,0.000000,0.198607
2013-02-04,0.000000,0.201369,0.000000,0.200550,0.198382,0.000000,0.000000,0.202516,0.000000,0.197154
2013-02-05,0.000000,0.200342,0.000000,0.200993,0.199173,0.000000,0.000000,0.199007,0.000000,0.200493
2013-02-06,0.000000,0.200378,0.000000,0.202673,0.198254,0.000000,0.000000,0.200745,0.000000,0.197937
2013-02-07,0.000000,0.200522,0.000000,0.199317,0.200762,0.000000,0.000000,0.200365,0.000000,0.199037
2013-02-08,0.000000,0.200509,0.000000,0.196294,0.200955,0.000000,0.000000,0.200533,0.000000,0.201698
2013-02-11,0.000000,0.199463,0.000000,0.204042,0.199045,0.000000,0.000000,0.198526,0.000000,0.199017
2013-02-12,0.000000,0.199811,0.000000,0.198946,0.200023,0.000000,0.000000,0.200038,0.000000,0.201208
2013-02-13,0.000000,0.199841,0.000000,0.198745,0.201144,0.000000,0.000000,0.199873,0.000000,0.200388
2013-02-14,0.000000,0.201446,0.000000,0.199506,0.199309,0.000000,0.000000,0.199825,0.000000,0.199916
2013-02-15,0.000000,0.200125,0.000000,0.201927,0.199221,0.000000,0.000000,0.200075,0.000000,0.198652
2013-02-18,0.000000,0.199916,0.000000,0.201716,0.200765,0.000000,0.000000,0.199866,0.000000,0.199867
2013-02-19,0.000000,0.198723,0.000000,0.199208,0.200838,0.000000,0.000000,0.199383,0.000000,0.201198
2013-02-20,0.000000,0.198590,0.000000,0.201182,0.200709,0.000000,0.000000,0.200042,0.000000,0.199469
2013-02-21,0.000000,0.201801,0.000000,0.200126,0.198690,0.000000,0.000000,0.201469,0.000000,0.197926
2013-02-22,0.000000,0.199304,0.000000,0.201290,0.199547,0.000000,0.000000,0.198454,0.000000,0.201434
2013-02-25,0.000000,0.197505,0.000000,0.195704,0.203946,0.000000,0.000000,0.200047,0.000000,0.202806
2013-02-26,0.000000,0.202037,0.000000,0.204653,0.196908,0.000000,0.000000,0.201632,0.000000,0.195026
2013-02-27,0.000000,0.200794,0.000000,0.199104,0.199769,0.000000,0.000000,0.199348,0.000000,0.201023
2013-02-28,0.000000,0.198470,0.000000,0.199926,0.200714,0.000000,0.000000,0.200346,0.000000,0.200549
2013-03-01,0.000000,0.200354,0.000000,0.203221,0.198984,0.000000,0.000000,0.198895,0.000000,0.198559
2013-03-04,0.000000,0.200913,0.000000,0.200377,0.199371,0.000000,0.000000,0.199096,0.000000,0.200229
2013-03-05,0.000000,0.199054,0.000000,0.199026,0.201985,0.000000,0.000000,0.197895,0.000000,0.202040
2013-03-06,0.000000,0.199005,0.000000,0.202859,0.199933,0.000000,0.000000,0.199777,0.000000,0.198450
2013-03-07,0.000000,0.199450,0.000000,0.200851,0.199927,0.000000,0.000000,0.199558,0.000000,0.200208
2013-03-08,0.000000,0.198896,0.000000,0.202505,0.199275,0.000000,0.000000,0.198349,0.000000,0.200975
2013-03-11,0.000000,0.200620,0.000000,0.199683,0.199994,0.000000,0.000000,0.200386,0.000000,0.199331
2013-03-12,0.000000,0.200703,0.000000,0.198032,0.200598,0.000000,0.000000,0.200210,0.000000,0.200450
2013-03-13,0.000000,0.200400,0.000000,0.201860,0.200268,0.000000,0.000000,0.197806,0.000000,0.199685
2013-03-14,0.000000,0.200034,0.000000,0.200958,0.201511,0.000000,0.000000,0.200440,0.000000,0.197054
2013-03-15,0.000000,0.199812,0.000000,0.200616,0.199811,0.000000,0.000000,0.200899,0.000000,0.198862
2013-03-18,0.000000,0.200113,0.000000,0.200100,0.200275,0.000000,0.000000,0.199810,0.000000,0.199701
2013-03-19,0.000000,0.200348,0.000000,0.201337,0.199506,0.000000,0.000000,0.200383,0.000000,0.198423
2013-03-20,0.000000,0.198997,0.000000,0.201313,0.199287,0.000000,0.000000,0.199462,0.000000,0.200940
2013-03-21,0.000000,0.200642,0.000000,0.199791,0.200069,0.000000,0.000000,0.199771,0.000000,0.199733
2013-03-22,0.000000,0.201262,0.000000,0.199177,0.199262,0.000000,0.000000,0.200566,0.000000,0.199729
2013-03-25,0.000000,0.200593,0.000000,0.200597,0.200276,0.000000,0.000000,0.199751,0.000000,0.198782
2013-03-26,0.000000,0.200766,0.000000,0.200967,0.199584,0.000000,0.000000,0.199996,0.000000,0.198674
2013-03-27,0.000000,0.200910,0.000000,0.201135,0.198747,0.000000,0.000000,0.200476,0.000000,0.198713
2013-03-28,0.000000,0.200503,0.000000,0.198699,0.199567,0.000000,0.000000,0.201029,0.000000,0.200203
2013-04-01,0.000000,0.200664,0.000000,0.195726,0.201098,0.000000,0.000000,0.200511,0.000000,0.201739
2013-04-02,0.000000,0.198677,0.000000,0.199308,0.203095,0.000000,0.000000,0.198197,0.000000,0.203791
2013-04-03,0.000000,0.200178,0.000000,0.202577,0.200670,0.000000,0.000000,0.197213,0.000000,0.199383
2013-04-04,0.000000,0.198651,0.000000,0.211286,0.196555,0.000000,0.000000,0.196740,0.000000,0.196579
2013-04-05,0.000000,0.200463,0.000000,0.202798,0.197247,0.000000,0.000000,0.200622,0.000000,0.198652
2013-04-08,0.000000,0.200243,0.000000,0.203819,0.198321,0.000000,0.000000,0.198994,0.000000,0.198541
2013-04-09,0.000000,0.200376,0.000000,0.197941,0.199042,0.000000,0.000000,0.202506,0.000000,0.200180
2013-04-10,0.000000,0.199059,0.000000,0.199838,0.201462,0.000000,0.000000,0.197545,0.000000,0.202131
2013-04-11,0.000000,0.200285,0.000000,0.199141,0.201377,0.000000,0.000000,0.198037,0.000000,0.201114
2013-04-12,0.000000,0.201700,0.000000,0.200643,0.198828,0.000000,0.000000,0.199811,0.000000,0.199029
2013-04-15,0.000000,0.198689,0.000000,0.198042,0.202896,0.000000,0.000000,0.197488,0.000000,0.202932
2013-04-16,0.000000,0.201328,0.000000,0.202783,0.197588,0.000000,0.000000,0.201030,0.000000,0.197393
2013-04-17,0.000000,0.200170,0.000000,0.202205,0.198315,0.000000,0.000000,0.200731,0.000000,0.198505
2013-04-18,0.000000,0.198730,0.000000,0.200284,0.199339,0.000000,0.000000,0.201195,0.000000,0.200445
2013-04-19,0.000000,0.200146,0.000000,0.203386,0.197843,0.000000,0.000000,0.198950,0.000000,0.199670
2013-04-22,0.000000,0.200519,0.000000,0.199351,0.199918,0.000000,0.000000,0.200005,0.000000,0.200217
2013-04-23,0.000000,0.199129,0.000000,0.199077,0.201889,0.000000,0.000000,0.196514,0.000000,0.203387
2013-04-24,0.000000,0.197784,0.000000,0.200083,0.200170,0.000000,0.000000,0.201286,0.000000,0.200677
2013-04-25,0.000000,0.200099,0.000000,0.200188,0.200914,0.000000,0.000000,0.199460,0.000000,0.199345
2013-04-26,0.000000,0.200794,0.000000,0.198594,0.201025,0.000000,0.000000,0.199336,0.000000,0.200246
2013-04-29,0.000000,0.199672,0.000000,0.198839,0.199589,0.000000,0.000000,0.200766,0.000000,0.201130
2013-04-30,0.000000,0.199812,0.000000,0.199525,0.200525,0.000000,0.000000,0.201125,0.000000,0.199012
2013-05-01,0.000000,0.199271,0.000000,0.199792,0.201695,0.000000,0.000000,0.198613,0.000000,0.200172
2013-05-02,0.000000,0.200432,0.000000,0.199909,0.201126,0.000000,0.000000,0.200046,0.000000,0.200824
2013-05-03,0.000000,0.199214,0.000000,0.201312,0.200822,0.000000,0.000000,0.198403,0.000000,0.200213
2013-05-06,0.000000,0.200509,0.000000,0.200380,0.199617,0.000000,0.000000,0.200197,0.000000,0.199301
2013-05-07,0.000000,0.199942,0.000000,0.199637,0.200575,0.000000,0.000000,0.199526,0.000000,0.200324
2013-05-08,0.000000,0.199193,0.000000,0.200058,0.200100,0.000000,0.000000,0.200799,0.000000,0.199851
2013-05-09,0.000000,0.199364,0.000000,0.202175,0.200249,0.000000,0.000000,0.198474,0.000000,0.199741
2013-05-10,0.000000,0.199538,0.000000,0.202065,0.199143,0.000000,0.000000,0.199870,0.000000,0.199359
2013-05-13,0.000000,0.200132,0.000000,0.201397,0.199942,0.000000,0.000000,0.198896,0.000000,0.199617
2013-05-14,0.000000,0.200378,0.000000,0.200741,0.199694,0.000000,0.000000,0.199388,0.000000,0.199791
2013-05-15,0.000000,0.200371,0.000000,0.201267,0.200140,0.000000,0.000000,0.197591,0.000000,0.200620
2013-05-16,0.000000,0.199873,0.000000,0.197533,0.200823,0.000000,0.000000,0.201166,0.000000,0.200631
2013-05-17,0.000000,0.199615,0.000000,0.203029,0.198524,0.000000,0.000000,0.200001,0.000000,0.198878
2013-05-20,0.000000,0.199870,0.000000,0.199170,0.200962,0.000000,0.000000,0.199690,0.000000,0.200330
2013-05-21,0.000000,0.199219,0.000000,0.201305,0.199276,0.000000,0.000000,0.201155,0.000000,0.198745
2013-05-22,0.000000,0.197976,0.000000,0.201162,0.200927,0.000000,0.000000,0.199553,0.000000,0.200377
2013-05-23,0.000000,0.203773,0.000000,0.193423,0.200245,0.000000,0.000000,0.202164,0.000000,0.200474
2013-05-24,0.000000,0.201600,0.000000,0.194876,0.200478,0.000000,0.000000,0.202012,0.000000,0.200812
2013-05-27,0.000000,0.200862,0.000000,0.194162,0.200982,0.000000,0.000000,0.199185,0.000000,0.201287
2013-05-28,0.000000,0.197996,0.000000,0.198895,0.200940,0.000000,0.000000,0.199062,0.000000,0.201654
2013-05-29,0.000000,0.201809,0.000000,0.196897,0.198957,0.000000,0.000000,0.203478,0.000000,0.198870
2013-05-30,0.000000,0.200782,0.000000,0.197353,0.201456,0.000000,0.000000,0.199528,0.000000,0.200855
2013-05-31,0.000000,0.199390,0.000000,0.197047,0.201605,0.000000,0.000000,0.201113,0.000000,0.200796
2013-06-03,0.000000,0.202528,0.000000,0.197662,0.199859,0.000000,0.000000,0.200185,0.000000,0.199740
2013-06-04,0.000000,0.198372,0.000000,0.204708,0.199088,0.000000,0.000000,0.198566,0.000000,0.199342
2013-06-05,0.000000,0.201195,0.000000,0.194260,0.201866,0.000000,0.000000,0.201861,0.000000,0.200990
2013-06-06,0.000000,0.203160,0.000000,0.198121,0.198971,0.000000,0.000000,0.200747,0.000000,0.198937
2013-06-07,0.000000,0.198678,0.000000,0.204813,0.200456,0.000000,0.000000,0.195991,0.000000,0.200147
2013-06-10,0.000000,0.199033,0.000000,0.203559,0.199810,0.000000,0.000000,-0.199396,0.000000,0.198098
2013-06-11,0.000000,0.200615,0.000000,0.193736,0.200309,0.000000,0.000000,-0.199465,0.000000,0.200006
2013-06-12,0.000000,0.198485,0.000000,0.200812,0.198691,0.000000,0.000000,-0.198513,0.000000,0.199385
2013-06-13,0.000000,0.202886,0.000000,0.201429,0.199217,0.000000,0.000000,-0.203983,0.000000,0.199899
2013-06-14,0.000000,0.199410,0.000000,0.194649,0.201657,0.000000,0.000000,-0.198838,0.000000,0.201176
2013-06-17,0.000000,0.199702,0.000000,0.204477,0.199967,0.000000,0.000000,-0.200196,0.000000,0.200509
2013-06-18,0.000000,0.200388,0.000000,0.202788,0.199242,0.000000,0.000000,-0.199242,0.000000,0.198767
2013-06-19,0.000000,0.198085,0.000000,0.200106,0.199927,0.000000,0.000000,-0.199115,0.000000,0.199592
2013-06-20,0.000000,0.198720,0.000000,0.198040,0.197570,0.000000,0.000000,-0.197975,0.000000,0.196196
2013-06-21,0.000000,0.199677,0.000000,0.207861,0.196563,0.000000,0.000000,-0.200352,0.000000,0.196974
2013-06-24,0.000000,0.199960,0.000000,0.197494,0.199049,0.000000,0.000000,-0.199857,0.000000,0.198976
2013-06-25,0.000000,0.200730,0.000000,0.201139,0.201568,0.000000,0.000000,-0.202065,0.000000,0.201091
2013-06-26,0.000000,0.200135,0.000000,0.195918,0.201630,0.000000,0.000000,-0.197482,0.000000,0.202989
2013-06-27,0.000000,0.199516,0.000000,0.204033,0.199722,0.000000,0.000000,-0.199253,0.000000,0.199751
2013-06-28,0.000000,0.199195,0.000000,0.204758,0.199185,0.000000,0.000000,-0.201934,0.000000,0.198494
2013-07-01,0.000000,0.199751,0.000000,0.201907,0.199193,0.000000,0.000000,-0.200742,0.000000,0.200273
2013-07-02,0.000000,0.200138,0.000000,0.203635,0.198271,0.000000,0.000000,-0.199669,0.000000,0.198623
2013-07-03,0.000000,0.201147,0.000000,0.199103,0.199138,0.000000,0.000000,-0.200004,0.000000,0.198763
2013-07-04,0.000000,0.199314,0.000000,0.197288,0.202260,0.000000,0.000000,-0.198721,0.000000,0.203806
2013-07-05,0.000000,0.200481,0.000000,0.203407,0.195542,0.000000,0.000000,-0.199710,0.000000,0.196650
2013-07-08,0.000000,0.199814,0.000000,0.197235,0.202620,0.000000,0.000000,-0.199667,0.000000,0.202556
2013-07-09,0.000000,0.200426,0.000000,0.200588,0.201532,0.000000,0.000000,-0.201326,0.000000,0.200336
2013-07-10,0.000000,0.200705,0.000000,0.198961,0.200005,0.000000,0.000000,-0.200084,0.000000,0.199738
2013-07-11,0.000000,0.201272,0.000000,0.201366,0.201446,0.000000,0.000000,-0.201990,0.000000,0.200553
2013-07-12,0.000000,0.199803,0.000000,0.199705,0.200875,0.000000,0.000000,-0.199046,0.000000,0.199102
2013-07-15,0.000000,0.200134,0.000000,0.201722,0.199803,0.000000,0.000000,-0.200585,0.000000,0.200388
2013-07-16,0.000000,0.200226,0.000000,0.198123,0.200523,0.000000,0.000000,-0.200498,0.000000,0.199702
2013-07-17,0.000000,0.199898,0.000000,0.201441,0.200399,0.000000,0.000000,-0.200786,0.000000,0.200288
2013-07-18,0.000000,0.199023,0.000000,0.202470,0.200199,0.000000,0.000000,-0.199534,0.000000,0.200949
2013-07-19,0.000000,0.201411,0.000000,0.198540,0.200615,0.000000,0.000000,-0.201778,0.000000,0.200559
2013-07-22,0.000000,0.200542,0.000000,0.198369,0.200333,0.000000,0.000000,-0.201279,0.000000,0.201117
2013-07-23,0.000000,0.199828,0.000000,0.200403,0.199764,0.000000,0.000000,-0.200037,0.000000,0.199918
2013-07-24,0.000000,0.198657,0.000000,0.199323,0.200337,0.000000,0.000000,-0.197854,0.000000,0.201162
2013-07-25,0.000000,0.201505,0.000000,0.196365,0.199813,0.000000,0.000000,-0.201308,0.000000,0.200669
2013-07-26,0.000000,0.201575,0.000000,0.195410,0.200112,0.000000,0.000000,-0.201332,0.000000,0.201570
2013-07-29,0.000000,0.200973,0.000000,0.195187,0.201560,0.000000,0.000000,-0.201839,0.000000,0.201083
2013-07-30,0.000000,0.198877,0.000000,0.201615,0.199177,0.000000,0.000000,-0.197056,0.000000,0.200207
2013-07-31,0.000000,0.199549,0.000000,0.198890,0.199364,0.000000,0.000000,-0.197560,0.000000,0.199691
2013-08-01,0.000000,0.199300,0.000000,0.204761,0.200531,0.000000,0.000000,-0.198863,0.000000,0.200344
2013-08-02,0.000000,0.199922,0.000000,0.201376,0.199648,0.000000,0.000000,-0.200008,0.000000,0.200051
2013-08-05,0.000000,0.200063,0.000000,0.199333,0.200132,0.000000,0.000000,-0.200248,0.000000,0.200239
2013-08-06,0.000000,0.199620,0.000000,0.199850,0.198126,0.000000,0.000000,-0.198274,0.000000,0.199195
2013-08-07,0.000000,0.200923,0.000000,0.194667,0.200562,0.000000,0.000000,-0.200985,0.000000,0.201607
2013-08-08,0.000000,0.200435,0.000000,0.198985,0.201176,0.000000,0.000000,-0.201556,0.000000,0.201359
2013-08-09,0.000000,0.199364,0.000000,0.198568,0.200672,0.000000,0.000000,-0.200083,0.000000,0.200962
2013-08-12,0.000000,0.199779,0.000000,0.200719,0.200553,0.000000,0.000000,-0.200471,0.000000,0.200043
2013-08-13,0.000000,0.199107,0.000000,0.203834,0.199901,0.000000,0.000000,-0.199771,0.000000,0.199579
2013-08-14,0.000000,0.199223,0.000000,0.198829,0.200735,0.000000,0.000000,-0.200315,0.000000,0.201034
2013-08-15,0.000000,0.199192,0.000000,0.197109,0.200947,0.000000,0.000000,-0.203049,0.000000,0.201073
2013-08-16,0.000000,0.199102,0.000000,0.201223,0.199949,0.000000,0.000000,-0.200610,0.000000,0.201013
2013-08-19,0.000000,0.199639,0.000000,0.199633,0.199865,0.000000,0.000000,-0.198195,0.000000,0.198330
2013-08-20,0.000000,0.202083,0.000000,0.198743,0.199712,0.000000,0.000000,-0.202303,0.000000,0.198913
2013-08-21,0.000000,0.198904,0.000000,0.199110,0.200219,0.000000,0.000000,-0.198916,0.000000,0.199455
2013-08-22,0.000000,0.200503,0.000000,0.202461,0.200830,0.000000,0.000000,-0.201081,0.000000,0.200723
2013-08-23,0.000000,0.200081,0.000000,0.201540,0.199969,0.000000,0.000000,-0.200773,0.000000,0.200617
2013-08-26,0.000000,0.199735,0.000000,0.197839,0.200885,0.000000,0.000000,-0.199845,0.000000,0.200185
2013-08-27,0.000000,0.199687,0.000000,0.197789,0.199025,0.000000,0.000000,-0.200850,0.000000,0.198560
2013-08-28,0.000000,0.200623,0.000000,0.202554,0.197493,0.000000,0.000000,-0.199827,0.000000,0.198899
2013-08-29,0.000000,0.200098,0.000000,0.201785,0.200318,0.000000,0.000000,-0.201950,0.000000,0.200639
2013-08-30,0.000000,0.200608,0.000000,0.198309,0.199478,0.000000,0.000000,-0.199963,0.000000,0.199022
2013-09-02,0.000000,0.199424,0.000000,0.197138,0.201685,0.000000,0.000000,-0.198782,0.000000,0.201881
2013-09-03,0.000000,0.198731,0.000000,0.206175,0.197649,0.000000,0.000000,-0.199534,0.000000,0.197960
2013-09-04,0.000000,0.200747,0.000000,0.201923,0.199412,0.000000,0.000000,-0.199476,0.000000,0.199348
2013-09-05,0.000000,0.200013,0.000000,0.200215,0.200623,0.000000,0.000000,0.201653,0.000000,0.200653
2013-09-06,0.000000,0.200272,0.000000,0.196451,0.201270,0.000000,0.000000,0.199481,0.000000,0.202526
2013-09-09,0.000000,0.199976,0.000000,0.205059,0.198515,0.000000,0.000000,0.198522,0.000000,0.198048
2013-09-10,0.000000,0.199128,0.000000,0.201045,0.201776,0.000000,0.000000,0.196755,0.000000,0.201270
2013-09-11,0.000000,0.200612,0.000000,0.198294,0.200484,0.000000,0.000000,0.200331,0.000000,0.200290
2013-09-12,0.000000,0.199594,0.000000,0.199525,0.200985,0.000000,0.000000,0.198829,0.000000,0.201054
2013-09-13,0.000000,0.199804,0.000000,0.200746,0.199899,0.000000,0.000000,0.199632,0.000000,0.199916
2013-09-16,0.000000,0.199469,0.000000,0.199817,0.200685,0.000000,0.000000,0.199923,0.000000,0.200106
2013-09-17,0.000000,0.201172,0.000000,0.199175,0.200087,0.000000,0.000000,0.199364,0.000000,0.200204
2013-09-18,0.000000,0.200406,0.000000,0.202642,0.198730,0.000000,0.000000,0.199212,0.000000,0.199022
2013-09-19,0.000000,0.199266,0.000000,0.200572,0.200762,0.000000,0.000000,0.199349,0.000000,0.200050
2013-09-20,0.000000,0.199352,0.000000,0.198885,0.200843,0.000000,0.000000,0.199664,0.000000,0.201247
2013-09-23,0.000000,0.199904,0.000000,0.199897,0.199966,0.000000,0.000000,0.200836,0.000000,0.199402
2013-09-24,0.000000,0.199226,0.000000,0.200545,0.200074,0.000000,0.000000,0.199663,0.000000,0.200494
2013-09-25,0.000000,0.199658,0.000000,0.198829,0.200446,0.000000,0.000000,0.200403,0.000000,0.200664
2013-09-26,0.000000,0.199901,0.000000,0.202842,0.198954,0.000000,0.000000,0.199565,0.000000,0.198762
2013-09-27,0.000000,0.199996,0.000000,0.197883,0.200789,0.000000,0.000000,0.200871,0.000000,0.200501
2013-09-30,0.000000,0.200096,0.000000,0.200258,0.199815,0.000000,0.000000,0.200217,0.000000,0.199618
2013-10-01,0.000000,0.200338,0.000000,0.197647,0.200656,0.000000,0.000000,0.200215,0.000000,0.201150
2013-10-02,0.000000,0.200695,0.000000,0.197455,0.200368,0.000000,0.000000,0.200595,0.000000,0.200849
2013-10-03,0.000000,0.199718,0.000000,0.199750,0.200486,0.000000,0.000000,0.199848,0.000000,0.200195
2013-10-04,0.000000,0.200563,0.000000,0.200393,0.199378,0.000000,0.000000,0.199241,0.000000,0.200427
2013-10-07,0.000000,0.199779,0.000000,0.195591,0.201032,0.000000,0.000000,0.202286,0.000000,0.201331
2013-10-08,0.000000,0.199006,0.000000,0.200795,0.200606,0.000000,0.000000,0.199355,0.000000,0.200257
2013-10-09,0.000000,0.199021,0.000000,0.203995,0.197768,0.000000,0.000000,0.200386,0.000000,0.198820
2013-10-10,0.000000,0.200393,0.000000,0.200035,0.200242,0.000000,0.000000,0.198850,0.000000,0.200490
2013-10-11,0.000000,0.200548,0.000000,0.201240,0.199639,0.000000,0.000000,0.199271,0.000000,0.199299
2013-10-14,0.000000,0.200478,0.000000,0.199792,0.199872,0.000000,0.000000,0.199133,0.000000,0.199996
2013-10-15,0.000000,0.198424,0.000000,0.197736,0.201911,0.000000,0.000000,0.199910,0.000000,0.201883
2013-10-16,0.000000,0.200939,0.000000,0.202228,0.199167,0.000000,0.000000,0.198473,0.000000,0.199242
2013-10-17,0.000000,0.201499,0.000000,0.199197,0.199108,0.000000,0.000000,0.200589,0.000000,0.199609
2013-10-18,0.000000,0.200044,0.000000,0.199104,0.199963,0.000000,0.000000,0.200720,0.000000,0.200163
2013-10-21,0.000000,0.199545,0.000000,0.200703,0.199727,0.000000,0.000000,0.200617,0.000000,0.199410
2013-10-22,0.000000,0.200272,0.000000,0.199658,0.200656,0.000000,0.000000,0.199511,0.000000,0.199907
2013-10-23,0.000000,0.200913,0.000000,0.195541,0.201108,0.000000,0.000000,0.202553,0.000000,0.199879
2013-10-24,0.000000,0.199500,0.000000,0.200045,0.200145,0.000000,0.000000,0.200062,0.000000,0.200250
2013-10-25,0.000000,0.200896,0.000000,0.197286,0.200545,0.000000,0.000000,0.201207,0.000000,0.200068
2013-10-28,0.000000,0.200421,0.000000,0.201255,0.199784,0.000000,0.000000,0.199435,0.000000,0.199124
2013-10-29,0.000000,0.199575,0.000000,0.201040,0.199389,0.000000,0.000000,0.199598,0.000000,0.200394
2013-10-30,0.000000,0.199158,0.000000,0.201052,0.199750,0.000000,0.000000,0.200675,0.000000,0.199358
2013-10-31,0.000000,0.199481,0.000000,0.198845,0.201020,0.000000,0.000000,0.198388,0.000000,0.202283
2013-11-01,0.000000,0.201052,0.000000,0.198958,0.200011,0.000000,0.000000,0.200412,0.000000,0.199573
2013-11-04,0.000000,0.200405,0.000000,0.199606,0.200121,0.000000,0.000000,0.199806,0.000000,0.200057
2013-11-05,0.000000,0.200367,0.000000,0.198866,0.200485,0.000000,0.000000,0.200819,0.000000,0.199461
2013-11-06,0.000000,0.199568,0.000000,0.201768,0.199278,0.000000,0.000000,0.199407,0.000000,0.199994
2013-11-07,0.000000,0.199464,0.000000,0.196323,0.202805,0.000000,0.000000,0.200335,0.000000,0.201116
2013-11-08,0.000000,0.201092,0.000000,0.202057,0.198467,0.000000,0.000000,0.200447,0.000000,0.198010
2013-11-11,0.000000,0.199507,0.000000,0.200246,0.200304,0.000000,0.000000,0.199234,0.000000,0.200720
2013-11-12,0.000000,0.199473,0.000000,0.203727,0.199011,0.000000,0.000000,0.199210,0.000000,0.198576
2013-11-13,0.000000,0.201115,0.000000,0.201131,0.198847,0.000000,0.000000,0.200367,0.000000,0.198507
2013-11-14,0.000000,0.198839,0.000000,0.202470,0.200046,0.000000,0.000000,0.198506,0.000000,0.200135
2013-11-15,0.000000,0.199517,0.000000,0.202174,0.199377,0.000000,0.000000,0.199829,0.000000,0.199073
2013-11-18,0.000000,0.199534,0.000000,0.198106,0.201372,0.000000,0.000000,0.199188,0.000000,0.201833
2013-11-19,0.000000,0.200170,0.000000,0.201157,0.199791,0.000000,0.000000,0.200433,0.000000,0.198478
2013-11-20,0.000000,0.199584,0.000000,0.199543,0.200255,0.000000,0.000000,0.200615,0.000000,0.200004
2013-11-21,0.000000,0.200144,0.000000,0.203555,0.198625,0.000000,0.000000,0.199172,0.000000,0.198517
2013-11-22,0.000000,0.200499,0.000000,0.199471,0.199968,0.000000,0.000000,0.199818,0.000000,0.200254
2013-11-25,0.000000,0.199530,0.000000,0.199264,0.201285,0.000000,0.000000,0.199418,0.000000,0.200502
2013-11-26,0.000000,0.200774,0.000000,0.199407,0.200776,0.000000,0.000000,0.198660,0.000000,0.200372
2013-11-27,0.000000,0.199044,0.000000,0.201890,0.199896,0.000000,0.000000,0.199210,0.000000,0.199964
2013-11-28,0.000000,0.198794,0.000000,0.201636,0.200592,0.000000,0.000000,0.199515,0.000000,0.200397
2013-11-29,0.000000,0.199530,0.000000,0.200195,0.200171,0.000000,0.000000,0.200173,0.000000,0.199422
2013-12-02,0.000000,0.199469,0.000000,0.200640,0.199865,0.000000,0.000000,0.200536,0.000000,0.199486
2013-12-03,0.000000,0.201729,0.000000,0.200087,0.198834,0.000000,0.000000,0.200641,0.000000,0.198708
2013-12-04,0.000000,0.201159,0.000000,0.199128,0.199214,0.000000,0.000000,0.201079,0.000000,0.199398
2013-12-05,0.000000,0.201168,0.000000,0.197912,0.201036,0.000000,0.000000,0.200326,0.000000,0.199543
2013-12-06,0.000000,0.199684,0.000000,0.203506,0.199043,0.000000,0.000000,0.198713,0.000000,0.199098
2013-12-09,0.000000,0.199617,0.000000,0.200839,0.199881,0.000000,0.000000,0.199801,0.000000,0.199844
2013-12-10,0.000000,0.200564,0.000000,0.199244,0.199549,0.000000,0.000000,0.201232,0.000000,0.199415
2013-12-11,0.000000,0.199695,0.000000,0.199328,0.201105,0.000000,0.000000,0.198920,0.000000,0.200962
2013-12-12,0.000000,0.198689,0.000000,0.203787,0.198666,0.000000,0.000000,0.200172,0.000000,0.198707
2013-12-13,0.000000,0.200360,0.000000,0.199782,0.200260,0.000000,0.000000,0.199511,0.000000,0.200086
2013-12-16,0.000000,0.199681,0.000000,0.196770,0.201555,0.000000,0.000000,0.200026,0.000000,0.201961
2013-12-17,0.000000,0.200453,0.000000,0.200229,0.200020,0.000000,0.000000,0.199998,0.000000,0.199311
2013-12-18,0.000000,0.199976,0.000000,0.204519,0.198196,0.000000,0.000000,0.199119,0.000000,0.198192
2013-12-19,0.000000,0.198531,0.000000,0.197404,0.202288,0.000000,0.000000,0.199694,0.000000,0.202179
2013-12-20,0.000000,0.200116,0.000000,0.200365,0.200301,0.000000,0.000000,0.198867,0.000000,0.200381
2013-12-23,0.000000,0.199587,0.000000,0.200298,0.200330,0.000000,0.000000,0.199927,0.000000,0.199857
2013-12-24,0.000000,0.200722,0.000000,0.198113,0.200366,0.000000,0.000000,0.201098,0.000000,0.199893
2013-12-26,0.000000,0.199813,0.000000,0.203232,0.199361,0.000000,0.000000,0.200090,0.000000,0.198891
2013-12-27,0.000000,0.198671,0.000000,0.199280,0.199772,0.000000,0.000000,0.198923,0.000000,0.200419
2013-12-30,0.000000,0.199877,0.000000,0.199884,0.200370,0.000000,0.000000,0.199734,0.000000,0.200132
2013-12-31,0.000000,0.200326,0.000000,0.200379,0.200015,0.000000,0.000000,0.200005,0.000000,0.199778
2014-01-02,0.000000,0.201129,0.000000,0.198340,0.198438,0.000000,0.000000,0.202284,0.000000,0.199111
2014-01-03,0.000000,0.199605,0.000000,0.200647,0.200213,0.000000,0.000000,0.199125,0.000000,0.200433
2014-01-06,0.000000,0.200620,0.000000,0.197838,0.201026,0.000000,0.000000,0.199771,0.000000,0.200750
2014-01-07,0.000000,0.199461,0.000000,0.199684,0.199895,0.000000,0.000000,0.199863,0.000000,0.201091
2014-01-08,0.000000,0.199896,0.000000,0.200956,0.199306,0.000000,0.000000,0.200527,0.000000,0.199319
2014-01-09,0.000000,0.200693,0.000000,0.199389,0.199264,0.000000,0.000000,0.201049,0.000000,0.199602
2014-01-10,0.000000,0.199852,0.000000,0.198275,0.200414,0.000000,0.000000,0.201145,0.000000,0.200305
2014-01-13,0.000000,0.198759,0.000000,0.196816,0.201940,0.000000,0.000000,0.200740,0.000000,0.201705
2014-01-14,0.000000,0.200905,0.000000,0.201429,0.199549,0.000000,0.000000,0.198780,0.000000,0.199380
2014-01-15,0.000000,0.198759,0.000000,0.199729,0.201762,0.000000,0.000000,0.198672,0.000000,0.201084
2014-01-16,0.000000,0.200032,0.000000,0.198140,0.200562,0.000000,0.000000,0.201619,0.000000,0.199652
2014-01-17,0.000000,0.199306,0.000000,0.200859,0.200026,0.000000,0.000000,0.200101,0.000000,0.199714
2014-01-20,0.000000,0.199156,0.000000,0.200708,0.199173,0.000000,0.000000,0.201405,0.000000,0.199722
2014-01-21,0.000000,0.200079,0.000000,0.200375,0.200148,0.000000,0.000000,0.199269,0.000000,0.199831
2014-01-22,0.000000,0.199681,0.000000,0.200437,0.199538,0.000000,0.000000,0.200729,0.000000,0.199618
2014-01-23,0.000000,0.200920,0.000000,0.196189,0.200782,0.000000,0.000000,0.201684,0.000000,0.200431
2014-01-24,0.000000,0.200588,0.000000,0.199416,0.199841,0.000000,0.000000,0.201116,0.000000,0.199019
2014-01-27,0.000000,0.199845,0.000000,0.201017,0.200239,0.000000,0.000000,0.198760,0.000000,0.200150
2014-01-28,0.000000,0.199948,0.000000,0.200667,0.199313,0.000000,0.000000,0.200337,0.000000,0.199735
2014-01-29,0.000000,0.199563,0.000000,0.199153,0.200183,0.000000,0.000000,0.200888,0.000000,0.200216
2014-01-30,0.000000,0.200264,0.000000,0.201000,0.199364,0.000000,0.000000,0.199776,0.000000,0.199603
2014-01-31,0.000000,0.201147,0.000000,0.195087,0.200909,0.000000,0.000000,0.201403,0.000000,0.201485
2014-02-03,0.000000,0.199261,0.000000,0.197661,0.201465,0.000000,0.000000,0.200905,0.000000,0.200637
2014-02-04,0.000000,0.200874,0.000000,0.201722,0.198446,0.000000,0.000000,0.199322,0.000000,0.199675
2014-02-05,0.000000,0.200237,0.000000,0.198319,0.199901,0.000000,0.000000,0.201352,0.000000,0.200208
2014-02-06,0.000000,0.199606,0.000000,0.201095,0.199741,0.000000,0.000000,0.199583,0.000000,0.199988
2014-02-07,0.000000,0.200902,0.000000,0.201024,0.199001,0.000000,0.000000,0.199215,0.000000,0.199851
2014-02-10,0.000000,0.200287,0.000000,0.199739,0.199889,0.000000,0.000000,0.200401,0.000000,0.199686
2014-02-11,0.000000,0.199554,0.000000,0.200723,0.201263,0.000000,0.000000,0.198240,0.000000,0.200226
2014-02-12,0.000000,0.199903,0.000000,0.198247,0.200877,0.000000,0.000000,0.200222,0.000000,0.200752
2014-02-13,0.000000,0.200449,0.000000,0.197496,0.201056,0.000000,0.000000,0.200931,0.000000,0.200040
2014-02-14,0.000000,0.200841,0.000000,0.197075,0.200767,0.000000,0.000000,0.200512,0.000000,0.200760
2014-02-17,0.000000,0.200746,0.000000,0.196981,0.200122,0.000000,0.000000,0.200416,0.000000,0.200161
2014-02-18,0.000000,0.199116,0.000000,0.203452,0.199094,0.000000,0.000000,0.199117,0.000000,0.199003
2014-02-19,0.000000,0.199206,0.000000,0.198754,0.200205,0.000000,0.000000,0.201411,0.000000,0.200451
2014-02-20,0.000000,0.201299,0.000000,0.198756,0.199074,0.000000,0.000000,0.200936,0.000000,0.199928
2014-02-21,0.000000,0.198719,0.000000,0.202145,0.200147,0.000000,0.000000,0.199058,0.000000,0.199957
2014-02-24,0.000000,0.200205,0.000000,0.201014,0.199456,0.000000,0.000000,0.199175,0.000000,0.200137
2014-02-25,0.000000,0.199914,0.000000,0.199486,0.200361,0.000000,0.000000,0.199911,0.000000,0.200331
2014-02-26,0.000000,0.199914,0.000000,0.200309,0.199664,0.000000,0.000000,0.200056,0.000000,0.200059
2014-02-27,0.000000,0.201397,0.000000,0.200228,0.198533,0.000000,0.000000,0.200635,0.000000,0.199205
2014-02-28,0.000000,0.200176,0.000000,0.199799,0.201172,0.000000,0.000000,0.199064,0.000000,0.199799
2014-03-03,0.000000,0.202137,0.000000,0.198132,0.197574,0.000000,0.000000,0.203777,0.000000,0.198407
2014-03-04,0.000000,0.199075,0.000000,0.202322,0.200455,0.000000,0.000000,0.197202,0.000000,0.201044
2014-03-05,0.000000,0.200478,0.000000,0.199234,0.199305,0.000000,0.000000,0.200763,0.000000,0.200243
2014-03-06,0.000000,0.199255,0.000000,0.204196,0.198941,0.000000,0.000000,0.198202,0.000000,0.199428
2014-03-07,0.000000,0.201311,0.000000,0.201387,0.197256,0.000000,0.000000,0.201838,0.000000,0.198180
2014-03-10,0.000000,0.200676,0.000000,0.199577,0.198750,0.000000,0.000000,0.200609,0.000000,0.200367
2014-03-11,0.000000,0.199460,0.000000,0.198107,0.201458,0.000000,0.000000,0.200302,0.000000,0.200678
2014-03-12,0.000000,0.201180,0.000000,0.198037,0.198858,0.000000,0.000000,0.202436,0.000000,0.199480
2014-03-13,0.000000,0.200319,0.000000,0.197946,0.199390,0.000000,0.000000,0.201910,0.000000,0.200385
2014-03-14,0.000000,0.200236,0.000000,0.198117,0.201653,0.000000,0.000000,0.200359,0.000000,0.199644
2014-03-17,0.000000,0.199574,0.000000,0.201345,0.200488,0.000000,0.000000,0.197854,0.000000,0.200754
2014-03-18,0.000000,0.200437,0.000000,0.198145,0.200328,0.000000,0.000000,0.200576,0.000000,0.200539
2014-03-19,0.000000,0.198513,0.000000,0.201685,0.200664,0.000000,0.000000,0.199089,0.000000,0.200070
2014-03-20,0.000000,0.202311,0.000000,0.197715,0.201447,0.000000,0.000000,0.201531,0.000000,0.197036
2014-03-21,0.000000,0.199142,0.000000,0.198990,0.201590,0.000000,0.000000,0.199303,0.000000,0.200968
2014-03-24,0.000000,0.200596,0.000000,0.202823,0.197599,0.000000,0.000000,0.200942,0.000000,0.198089
2014-03-25,0.000000,0.199531,0.000000,0.199315,0.201493,0.000000,0.000000,0.198364,0.000000,0.201346
2014-03-26,0.000000,0.198173,0.000000,0.199003,0.202435,0.000000,0.000000,0.198112,0.000000,0.202221
2014-03-27,0.000000,0.198958,0.000000,0.202786,0.199427,0.000000,0.000000,0.199273,0.000000,0.199565
2014-03-28,0.000000,0.198938,0.000000,0.201116,0.200621,0.000000,0.000000,0.198988,0.000000,0.200315
2014-03-31,0.000000,0.201074,0.000000,0.199766,0.199222,0.000000,0.000000,0.200644,0.000000,0.199307
2014-04-01,0.000000,0.200397,0.000000,0.200122,0.199471,0.000000,0.000000,0.199932,0.000000,0.200074
2014-04-02,0.000000,0.199509,0.000000,0.201550,0.199812,0.000000,0.000000,0.199728,0.000000,0.199400
2014-04-03,0.000000,0.200045,0.000000,0.199913,0.199910,0.000000,0.000000,0.199002,0.000000,0.201133
2014-04-04,0.000000,0.198205,0.000000,0.197937,0.201925,0.000000,0.000000,0.199923,0.000000,0.201998
2014-04-07,0.000000,0.200076,0.000000,0.200299,0.198674,0.000000,0.000000,0.201059,0.000000,0.199909
2014-04-08,0.000000,0.201584,0.000000,0.195921,0.200355,0.000000,0.000000,0.202154,0.000000,0.199983
2014-04-09,0.000000,0.200976,0.000000,0.200918,0.199276,0.000000,0.000000,0.199552,0.000000,0.199295
2014-04-10,0.000000,0.199017,0.000000,-0.196428,0.201892,0.000000,0.000000,0.201396,0.000000,0.201304
2014-04-11,0.000000,0.199451,0.000000,-0.199200,0.198133,0.000000,0.000000,0.200709,0.000000,0.198720
2014-04-14,0.000000,0.201357,0.000000,-0.202820,0.200497,0.000000,0.000000,0.199876,0.000000,0.201195
2014-04-15,0.000000,0.202288,0.000000,-0.200709,0.197162,0.000000,0.000000,0.201776,0.000000,0.198220
2014-04-16,0.000000,0.200633,0.000000,-0.204129,0.202342,0.000000,0.000000,0.200663,0.000000,0.202154
2014-04-17,0.000000,0.199722,0.000000,-0.199570,0.201228,0.000000,0.000000,0.199885,0.000000,0.200387
2014-04-21,0.000000,0.200768,0.000000,-0.200964,0.201296,0.000000,0.000000,0.199923,0.000000,0.200455
2014-04-22,0.000000,0.199009,0.000000,-0.197050,0.202038,0.000000,0.000000,0.199153,0.000000,0.200946
2014-04-23,0.000000,0.200435,0.000000,-0.200680,0.199479,0.000000,0.000000,0.200494,0.000000,0.199202
2014-04-24,0.000000,0.199731,0.000000,-0.198562,0.199376,0.000000,0.000000,0.199875,0.000000,0.200115
2014-04-25,0.000000,0.199732,0.000000,-0.199874,0.198390,0.000000,0.000000,0.200619,0.000000,0.198877
2014-04-28,0.000000,0.200330,0.000000,-0.200590,0.200374,0.000000,0.000000,0.199999,0.000000,0.200525
2014-04-29,0.000000,0.199265,0.000000,-0.199411,0.201858,0.000000,0.000000,0.199372,0.000000,0.201596
2014-04-30,0.000000,0.199901,0.000000,-0.196963,0.199484,0.000000,0.000000,0.200265,0.000000,0.198856
2014-05-01,0.000000,0.200458,0.000000,-0.202797,0.199968,0.000000,0.000000,0.200365,0.000000,0.199338
2014-05-02,0.000000,0.199819,0.000000,-0.199197,0.199222,0.000000,0.000000,0.201268,0.000000,0.199503
2014-05-05,0.000000,0.200107,0.000000,-0.199279,0.199712,0.000000,0.000000,0.199164,0.000000,0.200357
2014-05-06,0.000000,0.199545,0.000000,-0.199517,0.199502,0.000000,0.000000,0.199552,0.000000,0.199366
2014-05-07,0.000000,0.200236,0.000000,-0.198748,0.200208,0.000000,0.000000,0.199981,0.000000,0.200000
2014-05-08,0.000000,0.198764,0.000000,-0.197299,0.200763,0.000000,0.000000,0.197857,0.000000,0.201970
2014-05-09,0.000000,0.200677,0.000000,-0.201609,0.200168,0.000000,0.000000,0.200205,0.000000,0.199468
2014-05-12,0.000000,0.200901,0.000000,-0.201030,0.201200,0.000000,0.000000,0.200729,0.000000,0.200497
2014-05-13,0.000000,0.200117,0.000000,-0.201841,0.201185,0.000000,0.000000,0.200222,0.000000,0.200399
2014-05-14,0.000000,0.198632,0.000000,-0.196616,0.199581,0.000000,0.000000,0.199509,0.000000,0.199706
2014-05-15,0.000000,0.199377,0.000000,-0.199323,0.199052,0.000000,0.000000,0.200097,0.000000,0.198206
2014-05-16,0.000000,0.201012,0.000000,-0.200987,0.199409,0.000000,0.000000,0.199246,0.000000,0.200909
2014-05-19,0.000000,0.200218,0.000000,-0.198858,0.200509,0.000000,0.000000,0.198668,0.000000,0.199863
2014-05-20,0.000000,0.198493,0.000000,-0.198027,0.199522,0.000000,0.000000,0.199741,0.000000,0.199691
2014-05-21,0.000000,0.201162,0.000000,-0.202125,0.200340,0.000000,0.000000,0.201245,0.000000,0.200676
2014-05-22,0.000000,0.200638,0.000000,-0.202901,0.200865,0.000000,0.000000,0.200797,0.000000,0.200459
2014-05-23,0.000000,0.200752,0.000000,-0.202470,0.200685,0.000000,0.000000,0.200132,0.000000,0.200855
2014-05-26,0.000000,0.199684,0.000000,-0.201393,0.201656,0.000000,0.000000,0.199149,0.000000,0.201304
2014-05-27,0.000000,0.200230,0.000000,-0.200516,0.200899,0.000000,0.000000,0.198988,0.000000,0.200381
2014-05-28,0.000000,0.200049,0.000000,-0.199803,0.199834,0.000000,0.000000,0.199693,0.000000,0.200075
2014-05-29,0.000000,0.201048,0.000000,-0.201197,0.200296,0.000000,0.000000,0.199411,0.000000,0.200229
2014-05-30,0.000000,0.200106,0.000000,-0.199402,0.199741,0.000000,0.000000,0.200268,0.000000,0.199803
2014-06-02,0.000000,0.200555,0.000000,-0.205162,0.200962,0.000000,0.000000,0.201489,0.000000,0.201085
2014-06-03,0.000000,0.200166,0.000000,-0.200273,0.199416,0.000000,0.000000,0.200831,0.000000,0.199585
2014-06-04,0.000000,0.200458,0.000000,-0.201462,0.200168,0.000000,0.000000,0.200756,0.000000,0.199944
2014-06-05,0.000000,0.200683,0.000000,-0.199297,0.199744,0.000000,0.000000,0.199056,0.000000,0.201087
2014-06-06,0.000000,0.200383,0.000000,-0.199803,0.199949,0.000000,0.000000,0.200104,0.000000,0.200803
2014-06-09,0.000000,0.199629,0.000000,-0.199068,0.200007,0.000000,0.000000,0.199998,0.000000,0.200376
2014-06-10,0.000000,0.199445,0.000000,-0.197448,0.199749,0.000000,0.000000,0.199702,0.000000,0.199721
2014-06-11,0.000000,0.199839,0.000000,-0.199506,0.198966,0.000000,0.000000,0.200460,0.000000,0.199235
2014-06-12,0.000000,0.198115,0.000000,-0.199515,0.200212,0.000000,0.000000,0.200676,0.000000,0.200009
2014-06-13,0.000000,0.200813,0.000000,-0.202916,0.199839,0.000000,0.000000,0.201444,0.000000,0.200232
2014-06-16,0.000000,0.199940,0.000000,-0.198313,0.199434,0.000000,0.000000,0.200559,0.000000,0.198680
2014-06-17,0.000000,0.200596,0.000000,-0.200998,0.200533,0.000000,0.000000,0.198989,0.000000,0.200619
2014-06-18,0.000000,0.201346,0.000000,-0.201763,0.200062,0.000000,0.000000,0.200681,0.000000,0.200137
2014-06-19,0.000000,0.199996,0.000000,-0.202698,0.201417,0.000000,0.000000,0.199752,0.000000,0.201819
2014-06-20,0.000000,0.200578,0.000000,-0.201050,0.200140,0.000000,0.000000,0.200200,0.000000,0.199604
2014-06-23,0.000000,0.200150,0.000000,-0.198752,0.198705,0.000000,0.000000,0.200572,0.000000,0.198963
2014-06-24,0.000000,0.199489,0.000000,-0.200751,0.200923,0.000000,0.000000,0.198695,0.000000,0.200673
2014-06-25,0.000000,0.201130,0.000000,-0.200355,0.199115,0.000000,0.000000,0.200438,0.000000,0.198714
2014-06-26,0.000000,0.200253,0.000000,-0.200004,0.198679,0.000000,0.000000,0.201600,0.000000,0.198791
2014-06-27,0.000000,0.199621,0.000000,-0.197144,0.199705,0.000000,0.000000,0.200194,0.000000,0.199041
2014-06-30,0.000000,0.199769,0.000000,-0.199981,0.200419,0.000000,0.000000,0.200205,0.000000,0.200151
2014-07-01,0.000000,0.201302,0.000000,-0.203170,0.200787,0.000000,0.000000,0.200150,0.000000,0.201244
2014-07-02,0.000000,0.199987,0.000000,-0.199719,0.200207,0.000000,0.000000,0.200238,0.000000,0.199661
2014-07-03,0.000000,0.199977,0.000000,-0.199507,0.201278,0.000000,0.000000,0.199014,0.000000,0.201256
2014-07-04,0.000000,0.200145,0.000000,-0.199675,0.199759,0.000000,0.000000,0.200908,0.000000,0.199011
2014-07-07,0.000000,0.200230,0.000000,-0.199202,0.198778,0.000000,0.000000,0.200353,0.000000,0.198389
2014-07-08,0.000000,0.200244,0.000000,-0.200595,0.198566,0.000000,0.000000,0.200667,0.000000,0.198450
2014-07-09,0.000000,0.200251,0.000000,-0.200739,0.200247,0.000000,0.000000,0.200372,0.000000,0.200755
2014-07-10,0.000000,0.199977,0.000000,-0.197876,0.197897,0.000000,0.000000,0.200554,0.000000,0.197561
2014-07-11,0.000000,0.200575,0.000000,-0.200817,0.199738,0.000000,0.000000,0.200159,0.000000,0.200153
2014-07-14,0.000000,0.200038,0.000000,-0.201338,0.202075,0.000000,0.000000,0.199497,0.000000,0.201387
2014-07-15,0.000000,0.200554,0.000000,-0.201644,0.199936,0.000000,0.000000,0.200304,0.000000,0.199157
2014-07-16,0.000000,0.199305,0.000000,-0.199074,0.200926,0.000000,0.000000,0.200344,0.000000,0.201264
2014-07-17,0.000000,0.198832,0.000000,-0.198589,0.198813,0.000000,0.000000,0.200880,0.000000,0.198106
2014-07-18,0.000000,0.201552,0.000000,0.200692,0.198821,0.000000,0.000000,0.200741,0.000000,0.200155
2014-07-21,0.000000,0.200383,0.000000,0.200198,0.199190,0.000000,0.000000,0.200643,0.000000,0.199584
2014-07-22,0.000000,0.199277,0.000000,0.199627,0.200662,0.000000,0.000000,0.198893,0.000000,0.201553
2014-07-23,0.000000,0.200085,0.000000,0.199310,0.200047,0.000000,0.000000,0.200935,0.000000,0.199629
2014-07-24,0.000000,0.199572,0.000000,0.199378,0.200288,0.000000,0.000000,0.199505,0.000000,0.201260
2014-07-25,0.000000,0.200060,0.000000,0.202112,0.197768,0.000000,0.000000,0.202022,0.000000,0.198065
2014-07-28,0.000000,0.199988,0.000000,0.201648,0.198945,0.000000,0.000000,0.199679,0.000000,0.199710
2014-07-29,0.000000,0.198619,0.000000,0.200144,0.200890,0.000000,0.000000,0.199586,0.000000,0.200764
2014-07-30,0.000000,0.199863,0.000000,0.201769,0.198461,0.000000,0.000000,0.201324,0.000000,0.198596
2014-07-31,0.000000,0.199380,0.000000,0.200003,0.199732,0.000000,0.000000,0.200730,0.000000,0.200148
2014-08-01,0.000000,0.201537,0.000000,0.201216,0.197771,0.000000,0.000000,0.200201,0.000000,0.199276
2014-08-04,0.000000,0.201113,0.000000,0.200807,0.198635,0.000000,0.000000,0.199909,0.000000,0.199708
2014-08-05,0.000000,0.199096,0.000000,0.197511,0.201710,0.000000,0.000000,0.200412,0.000000,0.201008
2014-08-06,0.000000,0.201136,0.000000,0.198843,0.199542,0.000000,0.000000,0.201090,0.000000,0.199383
2014-08-07,0.000000,0.200522,0.000000,0.200653,0.199612,0.000000,0.000000,0.200068,0.000000,0.199142
2014-08-08,0.000000,0.201579,0.000000,0.199641,0.199056,0.000000,0.000000,0.200539,0.000000,0.199177
2014-08-11,0.000000,0.198825,0.000000,0.199704,0.201701,0.000000,0.000000,0.198970,0.000000,0.200822
2014-08-12,0.000000,0.200723,0.000000,0.200534,0.198394,0.000000,0.000000,0.201092,0.000000,0.199284
2014-08-13,0.000000,0.199644,0.000000,0.200605,0.201229,0.000000,0.000000,0.198136,0.000000,0.200408
2014-08-14,0.000000,0.200420,0.000000,0.199979,0.199924,0.000000,0.000000,0.200092,0.000000,0.199588
2014-08-15,0.000000,0.201047,0.000000,0.200822,0.197782,0.000000,0.000000,0.201493,0.000000,0.198849
2014-08-18,0.000000,0.199477,0.000000,0.199442,0.201926,0.000000,0.000000,0.197911,0.000000,0.201293
2014-08-19,0.000000,0.199714,0.000000,0.199566,0.200490,0.000000,0.000000,0.200401,0.000000,0.199828
2014-08-20,0.000000,0.200276,0.000000,0.200508,0.199168,0.000000,0.000000,0.201088,0.000000,0.198960
2014-08-21,0.000000,0.199478,0.000000,0.200001,0.200548,0.000000,0.000000,0.198495,0.000000,0.201497
2014-08-22,0.000000,0.200658,0.000000,0.199616,0.199840,0.000000,0.000000,0.200542,0.000000,0.199355
2014-08-25,0.000000,0.198761,0.000000,0.198485,0.201238,0.000000,0.000000,0.199462,0.000000,0.202064
2014-08-26,0.000000,0.199556,0.000000,0.198567,0.201157,0.000000,0.000000,0.199273,0.000000,0.201410
2014-08-27,0.000000,0.200241,0.000000,0.199618,0.199942,0.000000,0.000000,0.200056,0.000000,0.200141
2014-08-28,0.000000,0.201142,0.000000,0.200323,0.198708,0.000000,0.000000,0.200674,0.000000,0.199152
2014-08-29,0.000000,0.200150,0.000000,0.200064,0.199411,0.000000,0.000000,0.200502,0.000000,0.199865
